#include <iostream>
#include <cmath> 

#define INPUT_SIZE  59
#define H1 32
#define H2 16
#define OUTPUT_SIZE 1

using namespace std;

union f_int {
    int int_version;
    float float_version;
};

//hard coded weights and biases
static float linear1_w[H1][INPUT_SIZE] =
{{ -0.00014302f, -0.00045018f, -0.00007008f, -0.00047663f, 0.00004342f, -0.00009311f, 0.00025544f, 0.00018963f, -0.00052605f, -0.00003967f, 0.13150378f, 0.01120948f, 0.05043648f, 0.02405182f, 0.11532891f, 0.01058899f, -0.01446506f, -0.01816260f, -0.05924824f, 0.03192219f, -0.15108114f, -0.05716386f, -0.02786029f, 0.14887686f, -0.11037558f, -0.00254076f, -0.01694535f, -0.08088313f, 0.01955753f, -0.12611370f, 0.20877929f, -0.05765829f, 0.11554724f, 0.04321476f, -0.01419111f, 0.13278683f, -0.04535792f, 0.21027383f, 0.04975690f, 0.01824426f, 0.19826999f, 0.10677872f, 0.31014854f, 0.12943146f, 0.13143811f, -0.00587076f, 0.12049181f, -0.06953438f, 0.03787960f, -0.03599265f, -0.08342841f, 0.05456674f, -0.13831913f, 0.05849169f, -0.26996401f, -0.27415362f, 0.03258235f, -0.03109381f, 0.04470702f },
{ -0.00016733f, -0.00002695f, -0.00028853f, -0.00014969f, -0.00003276f, -0.00015057f, 0.00009490f, -0.00044827f, -0.00021753f, -0.00023539f, -0.05346308f, 0.13138738f, 0.07581000f, 0.13014059f, -0.16437022f, -0.17118022f, -0.03240785f, -0.07282369f, -0.02787707f, -0.03233795f, 0.00548654f, -0.15240514f, -0.07281490f, 0.06842241f, -0.02978365f, 0.07679234f, -0.01599317f, 0.14927609f, -0.07142004f, 0.00886460f, -0.00370010f, 0.04717136f, -0.04529756f, 0.09281997f, 0.19391140f, -0.21863939f, -0.05153817f, 0.03073431f, -0.02241957f, -0.01956361f, -0.31129810f, -0.24739495f, -0.22998656f, -0.01900963f, -0.13792235f, -0.02989953f, -0.13827075f, -0.07907721f, -0.01273463f, -0.13159734f, -0.04863840f, 0.04477476f, 0.16992630f, 0.17230827f, 0.14575607f, -0.01340399f, -0.00412020f, 0.10053722f, -0.17776911f },
{ 0.00001066f, -0.00024585f, -0.00001229f, -0.00017868f, -0.00003060f, -0.00030432f, -0.00027485f, -0.00016852f, -0.00001817f, 0.00027963f, 0.10602661f, 0.01306447f, 0.15337385f, 0.05749004f, -0.16241138f, 0.09428275f, 0.01529636f, -0.00561234f, -0.14303558f, -0.08681522f, 0.11809213f, 0.07147894f, -0.00286564f, -0.11877816f, 0.05877050f, -0.10880742f, -0.02886551f, 0.02933984f, 0.07660141f, 0.10362383f, 0.03675220f, -0.11798191f, -0.03130473f, -0.10804323f, -0.05465079f, -0.14260657f, 0.14631031f, -0.18483272f, -0.00726002f, -0.03251756f, -0.08803935f, -0.21095473f, -0.02578497f, 0.06233573f, 0.15382934f, 0.04130804f, -0.09214357f, -0.16688316f, 0.04256328f, 0.06052732f, 0.10696477f, -0.06981113f, -0.04212226f, -0.01690988f, 0.48249903f, 0.37811488f, -0.10417132f, -0.03225151f, -0.00203103f },
{ 0.00011213f, -0.00019744f, 0.00040747f, 0.00005649f, -0.00020606f, 0.00004425f, -0.00010919f, -0.00018472f, -0.00016879f, 0.00018314f, -0.06525446f, -0.04890935f, -0.06466389f, -0.02740203f, -0.00845022f, 0.06236828f, 0.01837903f, -0.09352317f, -0.04147973f, -0.06789213f, -0.12603103f, -0.03886463f, 0.00724311f, -0.09695715f, -0.09592762f, 0.12039822f, -0.02713131f, -0.04584789f, -0.15811108f, -0.10759062f, -0.07525984f, -0.00720452f, 0.00378984f, 0.12131770f, 0.09286229f, 0.02189020f, -0.27674583f, -0.03342356f, 0.09236937f, -0.00028180f, 0.11195153f, 0.17339885f, 0.14241122f, -0.05843728f, 0.16049150f, -0.00116638f, 0.03202383f, -0.10443727f, -0.12528203f, -0.02914348f, -0.18647008f, -0.21906722f, -0.23445149f, -0.19197382f, -0.16432019f, -0.24871829f, 0.06675442f, -0.02891228f, 0.05395036f },
{ -0.00001200f, 0.00011943f, 0.00051086f, 0.00042852f, 0.00012062f, 0.00025650f, 0.00009168f, -0.00012315f, -0.00003786f, -0.00020041f, -0.01740455f, 0.03749066f, 0.04675901f, 0.09536899f, -0.08993806f, -0.11402340f, -0.00182770f, -0.10638409f, -0.11263270f, -0.12476309f, 0.02452680f, -0.12326413f, 0.13435878f, 0.09770784f, 0.16917081f, -0.05229528f, 0.15625292f, -0.05300233f, 0.10142764f, 0.12618604f, 0.11761340f, 0.08202779f, 0.00307083f, -0.10615308f, 0.07978908f, -0.09607138f, 0.08690192f, 0.03434789f, 0.01337346f, -0.06250062f, 0.01599735f, 0.14931171f, 0.22128639f, -0.22589794f, -0.04893791f, -0.10057282f, 0.05147968f, -0.20945577f, 0.01841544f, 0.07162595f, -0.02558421f, 0.23104309f, 0.00470220f, -0.05086951f, -0.07999224f, 0.00919162f, -0.12779881f, -0.11111083f, 0.03807417f },
{ 0.00003961f, -0.00035476f, 0.00002841f, 0.00004598f, 0.00010255f, 0.00000510f, 0.00008346f, -0.00003227f, 0.00024555f, 0.00039259f, 0.12047642f, -0.00301484f, 0.10165175f, -0.01884202f, -0.10334069f, 0.03500829f, 0.12560384f, -0.10222081f, -0.02894627f, 0.05611950f, 0.10558290f, 0.12622929f, 0.10320109f, -0.04710979f, 0.03599387f, -0.10921068f, 0.03522547f, 0.20239858f, 0.15115833f, 0.02068865f, -0.16692117f, -0.06457262f, -0.07055718f, -0.02626461f, -0.05147905f, 0.11129874f, 0.10903746f, -0.22195475f, -0.16571085f, -0.02495813f, -0.27799672f, -0.19774857f, -0.23802391f, 0.03629597f, 0.04395039f, 0.06923275f, -0.18487877f, -0.06408359f, 0.06083983f, -0.10599969f, 0.07552999f, 0.10453964f, 0.06234793f, 0.02662353f, 0.45105919f, 0.48205596f, 0.05190408f, 0.22524108f, 0.09273737f },
{ 0.00017739f, 0.00002659f, 0.00027578f, -0.00004296f, -0.00020014f, -0.00036142f, -0.00018336f, -0.00008604f, 0.00050969f, 0.00000904f, 0.03156146f, 0.05774030f, 0.05151306f, -0.08475041f, -0.18507333f, -0.05758286f, 0.19287832f, 0.09041917f, -0.10030423f, -0.13370450f, -0.03790453f, -0.15357567f, -0.00857654f, 0.07298952f, 0.08414915f, -0.12054031f, 0.07704935f, -0.05263475f, 0.05908302f, 0.14278646f, -0.05803389f, 0.12536559f, -0.11897679f, -0.02461378f, 0.21185149f, 0.15149620f, 0.01145434f, -0.16338950f, 0.12040972f, 0.11388427f, -0.03238768f, -0.13060002f, -0.32510927f, -0.01418866f, 0.06942616f, -0.00379058f, -0.12953679f, 0.07263886f, -0.07429126f, -0.21092917f, -0.03558145f, -0.27788684f, 0.05074909f, 0.11573667f, 0.08605460f, 0.00482675f, 0.05007827f, 0.00296466f, -0.03830216f },
{ 0.00005981f, 0.00015499f, 0.00025323f, -0.00012515f, 0.00016421f, -0.00033317f, -0.00035145f, 0.00002360f, -0.00015731f, 0.00005514f, 0.11224499f, 0.05431903f, 0.10132830f, -0.08662487f, -0.17459634f, -0.02415848f, 0.06144741f, 0.09187233f, -0.10210699f, -0.12237486f, 0.10461035f, -0.08924153f, 0.02913140f, -0.12497618f, -0.02173690f, -0.10711414f, 0.00544771f, -0.01347229f, 0.13302024f, 0.01458795f, 0.03958016f, 0.11237342f, -0.09685311f, -0.16424224f, 0.15128930f, 0.16604412f, 0.06115146f, -0.09585610f, -0.21190046f, -0.20017713f, -0.14800718f, -0.15112154f, -0.17199789f, -0.04713811f, 0.14879157f, 0.07295825f, -0.13971025f, -0.09664942f, 0.27924946f, 0.11410099f, 0.27592212f, 0.23307592f, 0.03870583f, -0.00031318f, 0.05384881f, 0.06003844f, 0.20461334f, 0.15642233f, -0.01703148f },
{ -0.00008956f, 0.00000133f, 0.00003240f, -0.00025001f, 0.00020005f, -0.00031236f, 0.00012196f, -0.00009132f, -0.00021249f, -0.00019038f, -0.11628071f, 0.04648428f, -0.07052402f, -0.06516361f, -0.02358014f, -0.07904812f, 0.19803123f, 0.14628214f, -0.00246261f, 0.04533859f, 0.12584771f, 0.05008099f, -0.03573623f, -0.02986332f, 0.04633377f, 0.09032845f, -0.03032536f, 0.00380829f, -0.00992970f, -0.00577653f, 0.00595751f, 0.12014564f, 0.12870668f, 0.11304920f, -0.12866695f, -0.07778719f, 0.12926492f, -0.08856407f, -0.06380474f, -0.20226160f, -0.07099270f, -0.19070947f, -0.35339651f, -0.13991743f, 0.07186503f, -0.14276113f, 0.07683520f, 0.08461200f, -0.18067229f, -0.13722439f, -0.14587192f, -0.19115341f, 0.21868521f, -0.01221553f, 0.44265261f, 0.38897163f, 0.00614759f, 0.07869685f, 0.04558111f },
{ 0.00024937f, -0.00004600f, -0.00037450f, 0.00032039f, 0.00001871f, 0.00041073f, 0.00001722f, -0.00029378f, -0.00039003f, -0.00028093f, -0.01206635f, 0.02992443f, 0.02377537f, 0.17187625f, -0.04145000f, 0.08676166f, 0.14328881f, 0.14568932f, -0.06286328f, 0.04601017f, 0.15334804f, 0.05682218f, 0.04514208f, -0.05015141f, -0.09180180f, 0.04399265f, 0.02090062f, 0.11739387f, 0.13317482f, 0.14871113f, 0.08703118f, 0.01786693f, -0.14377891f, -0.09890196f, -0.19190870f, -0.16949834f, 0.08645471f, -0.08833202f, -0.19044355f, -0.18110619f, -0.27738410f, -0.24334876f, -0.15305831f, 0.10529095f, -0.08306600f, -0.06769343f, 0.02675082f, -0.04084757f, -0.02029369f, 0.04870158f, -0.13384035f, -0.09853271f, 0.20212184f, 0.09996021f, 0.36978021f, 0.29657117f, -0.01831606f, 0.05737881f, 0.05150888f },
{ 0.00019022f, -0.00052329f, 0.00013580f, -0.00001596f, 0.00025004f, 0.00028873f, 0.00003735f, 0.00052624f, 0.00022785f, 0.00001160f, -0.06318608f, 0.01977432f, -0.10137575f, -0.10223436f, -0.09781590f, -0.16592622f, -0.11948245f, -0.07305548f, 0.02907278f, 0.06488350f, 0.06023572f, -0.12913974f, -0.08447865f, 0.07601504f, 0.06107511f, -0.02863967f, 0.08100122f, -0.02972244f, 0.03275551f, 0.19483647f, -0.03707752f, 0.01537586f, -0.08358028f, -0.06563114f, -0.01222559f, -0.02435085f, 0.01895693f, 0.02060886f, -0.14209187f, 0.00759203f, -0.25105202f, -0.21957625f, -0.16791780f, 0.19117415f, -0.04246943f, -0.04554689f, -0.21959731f, -0.11055179f, 0.04448880f, 0.01440068f, 0.16270345f, -0.06091765f, 0.13092177f, 0.09990021f, -0.04033782f, 0.01849985f, 0.01619538f, 0.06823749f, -0.02319887f },
{ 0.00014013f, -0.00034721f, -0.00002192f, -0.00044790f, -0.00001525f, -0.00009101f, -0.00023117f, -0.00005872f, -0.00008603f, -0.00003753f, 0.02588608f, -0.10872384f, -0.04751788f, -0.14283143f, 0.02196470f, 0.11356019f, 0.03547202f, 0.13646567f, -0.03387975f, 0.22728510f, -0.01649556f, 0.14366180f, -0.03898234f, 0.02186127f, -0.03696140f, -0.19564264f, 0.04967844f, -0.06083079f, -0.05872578f, -0.14222643f, -0.06751791f, 0.04381068f, -0.02580725f, -0.11005341f, -0.07096738f, -0.09855331f, 0.45962808f, 0.21568184f, -0.19541281f, -0.25710315f, -0.08653600f, -0.00494612f, 0.06119902f, -0.01192628f, 0.11399883f, 0.02536413f, 0.05986635f, 0.09360449f, 0.00994903f, -0.03978880f, 0.01981572f, -0.01235493f, 0.04153231f, 0.03828430f, 0.43673864f, 0.54716998f, -0.18546541f, 0.01822722f, 0.06807562f },
{ 0.00052321f, 0.00001207f, 0.00003646f, -0.00016823f, 0.00011294f, 0.00016302f, -0.00048023f, -0.00047465f, 0.00016916f, 0.00048731f, -0.02545030f, -0.03157814f, -0.03769522f, 0.08750719f, 0.14227174f, 0.14094865f, -0.12221784f, -0.00329039f, 0.11751487f, -0.11065364f, -0.25337383f, -0.09794753f, 0.12021901f, -0.05022774f, -0.10808877f, 0.11173634f, 0.02203426f, 0.04125635f, -0.15693744f, -0.15440723f, 0.13882548f, 0.12912121f, 0.04968353f, -0.00775942f, 0.04342919f, 0.22646017f, -0.38831031f, -0.04015587f, 0.04209878f, 0.03693819f, 0.04345585f, 0.19680062f, 0.27614948f, 0.05025821f, -0.00829647f, 0.03550106f, 0.17273800f, -0.15851849f, 0.05147444f, 0.15966964f, 0.02772176f, 0.30180615f, -0.18932047f, -0.15350436f, -0.31117302f, -0.41206816f, -0.09798526f, -0.01360436f, 0.08109340f },
{ 0.00042434f, -0.00035491f, -0.00019419f, 0.00019340f, 0.00015727f, -0.00024417f, 0.00006013f, 0.00004973f, -0.00003297f, -0.00027903f, -0.08224408f, 0.07911735f, -0.13239518f, 0.06840426f, -0.06902088f, 0.00671617f, 0.03658561f, -0.06784893f, -0.12501155f, 0.04200070f, -0.01259149f, -0.09126318f, 0.06756312f, -0.05450139f, 0.02266076f, 0.06592187f, -0.11525490f, 0.11100729f, -0.13197212f, -0.03820252f, -0.09985491f, -0.11250649f, 0.14479646f, 0.05593625f, 0.05645311f, -0.08907529f, 0.06857399f, -0.05233616f, -0.09532996f, 0.00759488f, 0.18054923f, 0.25614703f, -0.18220757f, 0.04636399f, -0.01346025f, 0.00181764f, 0.02315234f, 0.25431171f, -0.33897412f, -0.19938841f, -0.25956270f, -0.40607542f, 0.14855714f, 0.12585256f, 0.03697190f, 0.05892924f, -0.05762317f, 0.01818100f, -0.04616682f },
{ 0.00025267f, -0.00009529f, -0.00024853f, -0.00012194f, 0.00026921f, 0.00002130f, 0.00052612f, 0.00003229f, -0.00009619f, -0.00025419f, -0.08032093f, -0.03154761f, 0.00329802f, -0.08130576f, 0.05355288f, -0.08924622f, -0.07388578f, -0.07033850f, -0.01561108f, -0.00263904f, 0.00827717f, 0.00413779f, 0.04113153f, 0.11356584f, 0.01555654f, -0.04284132f, -0.12551865f, 0.01989873f, -0.08378677f, 0.04078063f, 0.05768045f, 0.00394678f, 0.06465543f, 0.07391822f, -0.02314889f, -0.07423896f, 0.15679009f, -0.03686088f, -0.06939612f, 0.06424313f, 0.13698332f, 0.06963813f, 0.09695172f, -0.09602144f, 0.02623762f, 0.16359715f, -0.01775676f, -0.07475621f, -0.01454573f, 0.01527447f, 0.05598266f, 0.07788081f, 0.06951092f, -0.03878108f, 0.13130249f, 0.08103397f, -0.02257383f, 0.04530992f, 0.09913056f },
{ -0.00045458f, -0.00016752f, -0.00010909f, 0.00049315f, 0.00003344f, -0.00000137f, -0.00008783f, -0.00007216f, -0.00001828f, 0.00006282f, 0.01415634f, -0.05017086f, -0.13727878f, -0.00666680f, -0.01984981f, 0.16596021f, -0.05039750f, 0.11211509f, 0.01578576f, 0.11393954f, -0.00431544f, -0.10531326f, -0.01105319f, 0.00994713f, -0.13262245f, -0.08274558f, 0.12573095f, 0.10821956f, 0.05356899f, 0.13225387f, 0.04428327f, 0.02806747f, 0.07867536f, 0.02792655f, 0.01952316f, -0.17450188f, 0.05037681f, 0.05911288f, 0.02635503f, 0.16923289f, 0.13366127f, 0.11809286f, 0.37553859f, 0.03220783f, 0.06887618f, 0.19256468f, -0.03295303f, -0.14363633f, -0.12691601f, -0.01203192f, -0.09660990f, -0.00455688f, 0.15395173f, 0.13386564f, -0.18717965f, -0.22681278f, -0.05866819f, -0.08391654f, -0.17739104f },
{ 0.00050886f, -0.00006702f, -0.00003328f, 0.00022388f, 0.00040516f, 0.00007572f, -0.00026056f, -0.00010253f, -0.00025116f, -0.00014221f, 0.08747052f, -0.11070844f, -0.02474880f, -0.05251486f, 0.01719530f, -0.09295428f, 0.01195783f, 0.00743908f, -0.16027489f, -0.17428386f, 0.00662475f, 0.06310447f, 0.03526570f, -0.01970067f, 0.05416401f, -0.02186770f, 0.05470851f, 0.10065308f, 0.06246423f, -0.00031274f, 0.09296179f, 0.02764601f, -0.05285963f, 0.09814860f, 0.11452023f, 0.39235818f, 0.05558962f, -0.25759232f, 0.05957786f, 0.07432900f, -0.31962320f, -0.19673291f, -0.35957232f, -0.03566197f, 0.05768292f, 0.00095716f, -0.07723865f, 0.01574835f, -0.03912535f, -0.26172182f, 0.12176228f, -0.22295406f, 0.11816005f, 0.13807690f, 0.11272790f, 0.11193347f, 0.09222490f, -0.00423687f, -0.16436918f },
{ 0.00009611f, 0.00018506f, 0.00019324f, 0.00001925f, -0.00018667f, -0.00007419f, -0.00003251f, 0.00009250f, 0.00037357f, -0.00027391f, -0.00732431f, 0.05404068f, 0.12278090f, -0.07928964f, -0.06447717f, 0.02329623f, 0.14669198f, -0.10435808f, -0.13221547f, -0.12989527f, 0.00993019f, 0.12173811f, -0.04656865f, 0.01887662f, -0.07315260f, -0.01780634f, -0.04897594f, 0.13678038f, -0.01170852f, 0.03792044f, -0.15607022f, 0.01629004f, 0.11911230f, 0.08211346f, -0.08963702f, 0.09841812f, 0.03933302f, -0.19441123f, 0.03106222f, -0.06563339f, -0.11376332f, -0.20947830f, -0.26735267f, -0.02782602f, 0.04040656f, 0.04412495f, -0.11618962f, 0.11876459f, 0.06159308f, -0.10107307f, 0.00437285f, 0.04537715f, 0.12837265f, 0.10881312f, 0.33268869f, 0.36646235f, -0.11182390f, -0.01420702f, 0.07270315f },
{ -0.00050893f, -0.00035743f, -0.00010628f, -0.00008821f, -0.00031958f, 0.00023615f, 0.00010843f, -0.00019648f, 0.00011671f, 0.00033514f, 0.00779336f, 0.08088151f, -0.01465755f, 0.05898982f, -0.12745427f, -0.07426789f, -0.06747195f, -0.02217159f, -0.12817739f, -0.13091689f, -0.06913953f, -0.12865119f, -0.01317561f, 0.09208392f, 0.11216410f, 0.09069470f, -0.04070088f, -0.05921692f, 0.09200364f, 0.12913668f, -0.13635443f, 0.07427290f, 0.11291713f, 0.03808560f, -0.11517935f, 0.22893475f, 0.05944137f, -0.06826570f, -0.09202022f, 0.05367311f, -0.21988502f, -0.03588842f, -0.22417372f, 0.06322025f, 0.10348628f, 0.14382435f, -0.13971071f, -0.02601155f, 0.03155996f, -0.14729851f, 0.04132999f, -0.00770571f, 0.00498354f, 0.10822734f, 0.02997784f, 0.04104772f, 0.07677721f, 0.11358935f, -0.06797195f },
{ 0.00040553f, -0.00001895f, -0.00018629f, -0.00042422f, 0.00032869f, -0.00011321f, -0.00014780f, -0.00024826f, 0.00000891f, 0.00032346f, 0.12850459f, 0.02721458f, -0.07091802f, 0.15097362f, -0.08050408f, -0.02539914f, 0.16814640f, -0.06286927f, -0.13841888f, -0.05924435f, 0.02551099f, 0.02522550f, -0.11256292f, 0.02991800f, -0.06167606f, -0.05902276f, -0.14023934f, -0.01401152f, -0.03833038f, -0.15325208f, -0.00365986f, -0.03790174f, -0.03069691f, -0.10535902f, -0.00593422f, 0.33269763f, 0.05710000f, -0.22167440f, 0.09942301f, 0.00749703f, -0.02398480f, 0.00315475f, 0.00765356f, -0.04853996f, 0.10077194f, -0.04987134f, -0.01487933f, -0.02900165f, -0.01131670f, -0.03084655f, -0.00918458f, -0.03351080f, 0.08637638f, 0.12335462f, 0.03657576f, 0.05087119f, 0.08708377f, 0.01900148f, -0.05746572f },
{ -0.00003615f, -0.00009761f, 0.00052497f, 0.00035769f, 0.00005615f, -0.00018605f, 0.00000954f, -0.00003607f, -0.00001442f, 0.00035359f, -0.08346114f, 0.04262553f, 0.04082419f, -0.12181561f, -0.02078116f, -0.00098078f, -0.00697660f, -0.01271454f, -0.02417390f, -0.01753912f, -0.01753171f, -0.01981773f, -0.08311280f, 0.06363171f, -0.08215494f, -0.12680680f, 0.00224330f, -0.04621170f, 0.03940240f, 0.03125839f, 0.06618297f, -0.12685490f, 0.02960103f, 0.05679953f, -0.00405833f, 0.04289927f, 0.06256414f, 0.00126824f, 0.02744110f, -0.03847713f, -0.07745396f, 0.02778233f, 0.01735442f, -0.06091139f, 0.07058644f, -0.08022996f, 0.05938144f, 0.08861971f, 0.00193499f, -0.05103144f, 0.00122634f, -0.01009878f, 0.04642060f, 0.04640643f, -0.01128815f, 0.00305312f, -0.01810670f, -0.00896966f, -0.01578143f },
{ -0.00036130f, 0.00017006f, 0.00000948f, 0.00000097f, -0.00006032f, 0.00029131f, -0.00004237f, 0.00046213f, 0.00004674f, 0.00015130f, 0.00915798f, 0.08086494f, -0.08682547f, 0.05569507f, -0.05560731f, -0.06553335f, 0.21110833f, 0.02201722f, 0.08160935f, 0.03439270f, -0.05770930f, 0.08328431f, 0.09020281f, -0.07264818f, -0.07535814f, 0.14259386f, 0.10167097f, 0.04388732f, 0.10691891f, 0.09920745f, -0.16488302f, 0.06777705f, 0.04964136f, 0.05988153f, -0.02447545f, -0.03515899f, 0.20305841f, 0.03061499f, 0.01503503f, -0.05542748f, -0.03776471f, -0.16110642f, -0.28128433f, -0.05427195f, -0.05893718f, -0.06698075f, 0.04285522f, 0.15645099f, -0.26221037f, -0.20400238f, -0.06727590f, -0.15274835f, 0.10765556f, 0.14137879f, 0.36970913f, 0.50417906f, 0.09861942f, -0.02604273f, -0.02553456f },
{ -0.00009450f, -0.00005778f, 0.00025341f, -0.00003811f, -0.00001411f, 0.00011577f, 0.00010810f, 0.00005331f, 0.00033568f, -0.00024535f, 0.02108077f, -0.00095082f, -0.02040134f, 0.15374516f, 0.14136836f, 0.04320589f, 0.00802919f, -0.05844606f, 0.02884244f, 0.06848006f, -0.19135834f, 0.01970506f, -0.03196762f, 0.11374865f, 0.02374785f, 0.11871403f, -0.10118362f, -0.11133500f, 0.04847053f, 0.12601431f, 0.02744860f, 0.12839909f, -0.08534551f, 0.02787538f, 0.07543162f, 0.05036303f, -0.17040993f, 0.18509972f, 0.08688090f, 0.04019783f, 0.27547723f, 0.07642223f, 0.29055035f, -0.06652361f, 0.04414671f, 0.05134896f, 0.08852223f, -0.16289784f, -0.09371332f, 0.05035918f, -0.11840703f, 0.03343126f, -0.14163235f, -0.18429852f, -0.34684104f, -0.38450322f, 0.03608029f, -0.05311417f, -0.04624574f },
{ 0.00018722f, -0.00004929f, 0.00008633f, -0.00034544f, 0.00007083f, 0.00035971f, 0.00007387f, -0.00025530f, 0.00052626f, -0.00035058f, -0.07791910f, 0.05917919f, 0.06888974f, -0.01825063f, 0.17749777f, -0.00745736f, -0.20070216f, 0.01440024f, 0.06677184f, 0.13671564f, -0.06442618f, 0.04695505f, 0.11564558f, 0.12582469f, -0.11352202f, 0.13979891f, -0.09090910f, 0.09069738f, -0.01145665f, -0.12872247f, 0.04986513f, -0.04125616f, -0.17031561f, -0.13925980f, 0.06120624f, 0.12751177f, -0.13706253f, 0.16386649f, 0.06794475f, 0.06526466f, 0.12312642f, 0.03145246f, 0.04771704f, -0.15592539f, -0.15383039f, -0.10456721f, 0.05621225f, -0.21863706f, 0.12896764f, 0.16724351f, 0.14026111f, 0.21045162f, -0.07281900f, -0.08912237f, -0.34040275f, -0.39758587f, -0.06542493f, -0.06039365f, -0.04225316f },
{ -0.00033180f, -0.00003022f, -0.00003311f, 0.00019088f, 0.00008450f, -0.00004755f, -0.00001461f, -0.00000871f, -0.00011406f, -0.00030960f, -0.02990691f, -0.03908291f, -0.11485332f, -0.02516115f, 0.13702105f, 0.13634619f, -0.07593805f, 0.12840565f, -0.11775596f, 0.08679979f, 0.08296054f, 0.13534601f, -0.10294145f, 0.09423012f, -0.11029401f, 0.03577163f, 0.02568704f, -0.06772169f, -0.07917935f, -0.03943634f, 0.21035954f, 0.16190934f, -0.05053165f, 0.01709796f, 0.06106908f, -0.09457846f, 0.07486177f, 0.22229092f, 0.07940649f, -0.00777966f, 0.14958760f, 0.15953895f, 0.34092018f, -0.08904684f, -0.08060920f, 0.08219175f, 0.08316496f, -0.09889881f, 0.00976577f, 0.03673691f, 0.13526145f, 0.13365823f, 0.22149970f, 0.23969473f, -0.19239475f, -0.19261660f, 0.00127143f, 0.09847243f, -0.29559037f },
{ 0.00016980f, -0.00004652f, -0.00016722f, 0.00000500f, -0.00017342f, 0.00004785f, -0.00009320f, -0.00024251f, -0.00034616f, 0.00000661f, -0.06393164f, 0.04292453f, 0.02665989f, 0.00730717f, 0.19571021f, -0.00492575f, -0.14889772f, -0.07060058f, -0.04779765f, -0.04951432f, -0.12944280f, -0.12201686f, 0.03462537f, 0.11624674f, 0.10885461f, 0.16460571f, -0.05191500f, -0.03651921f, -0.13169311f, -0.00588086f, -0.02843365f, 0.10236815f, -0.01286846f, 0.00131919f, 0.07629903f, -0.11865305f, 0.02457993f, 0.11596164f, 0.11359262f, 0.03118127f, 0.20239556f, 0.20433462f, 0.28414989f, 0.09638406f, 0.00334137f, 0.10663953f, 0.14684810f, 0.00713625f, 0.11550888f, 0.08312171f, -0.00521821f, 0.10030825f, -0.10040494f, -0.08876152f, -0.36747620f, -0.23711254f, 0.05283568f, -0.16567124f, 0.01344065f },
{ -0.00002783f, -0.00033741f, -0.00006759f, 0.00015044f, 0.00020727f, 0.00011221f, -0.00011165f, -0.00034756f, 0.00019351f, -0.00021660f, -0.02180987f, -0.00492942f, 0.00264110f, -0.01418727f, -0.06602070f, -0.04115427f, -0.00039005f, -0.02252971f, -0.03407352f, -0.03327032f, -0.00223655f, -0.02328280f, -0.05779348f, -0.10240390f, -0.05770566f, -0.08934745f, -0.00266979f, 0.01371838f, 0.02989947f, -0.03560084f, -0.03894906f, -0.04932130f, -0.01889614f, -0.00685836f, 0.01817560f, -0.02165315f, 0.00589713f, -0.07769603f, -0.03717080f, -0.05525248f, -0.00549618f, -0.03097770f, -0.07281421f, 0.02117446f, -0.02841618f, -0.03845210f, -0.02451527f, 0.01323222f, -0.00519273f, -0.01560728f, -0.00063222f, -0.01142085f, 0.06355542f, 0.05733189f, -0.00334782f, 0.00690417f, -0.02256056f, 0.03397776f, -0.01163222f },
{ -0.00033142f, 0.00005890f, -0.00025061f, 0.00013790f, 0.00024118f, -0.00029593f, -0.00027080f, 0.00051897f, -0.00024950f, 0.00051183f, -0.04495750f, 0.01670514f, 0.12540670f, -0.05512662f, -0.11125804f, -0.01087600f, 0.11656649f, 0.02523648f, -0.09270090f, -0.05919119f, 0.02969480f, 0.25191966f, -0.14443734f, -0.07893630f, -0.03154357f, 0.06908321f, -0.01131037f, -0.04684763f, 0.02808652f, 0.11654221f, 0.07610654f, 0.19920364f, 0.01230917f, 0.10208362f, -0.31827003f, -0.02284923f, 0.23281884f, 0.14556870f, -0.16488178f, -0.13730852f, -0.15271965f, -0.27491421f, -0.39109680f, -0.26086634f, 0.02988685f, 0.12098820f, 0.01074009f, -0.04830700f, -0.00749889f, -0.37411144f, 0.14158048f, -0.20492585f, 0.02960219f, 0.20900518f, 0.39491695f, 0.52719593f, -0.14716955f, 0.06517547f, -0.01358677f },
{ -0.00007069f, -0.00003775f, 0.00035366f, 0.00038299f, 0.00025458f, 0.00006419f, -0.00011781f, -0.00005306f, 0.00001534f, -0.00003579f, 0.08037875f, 0.07758722f, -0.12156815f, 0.06007057f, 0.00165521f, 0.15042830f, 0.00027648f, -0.03434963f, 0.00699514f, 0.14347419f, -0.02526335f, 0.14301392f, 0.05530946f, 0.11317509f, 0.00998209f, -0.08225963f, 0.05724812f, -0.06122753f, -0.07890468f, -0.03081832f, 0.14843108f, 0.13308333f, -0.01285407f, 0.04918514f, -0.04353397f, 0.15041186f, -0.28826845f, 0.14108670f, -0.11746325f, 0.00900204f, 0.16394134f, 0.18246001f, 0.06776842f, -0.08278177f, 0.06999801f, 0.10131523f, 0.02386863f, -0.10260404f, -0.01834878f, 0.12047421f, 0.16608028f, 0.07342371f, 0.03252669f, -0.01644141f, 0.16664451f, 0.07558360f, 0.04186890f, 0.03748224f, 0.12177135f },
{ -0.00019770f, 0.00008738f, 0.00017576f, 0.00022617f, -0.00030068f, -0.00008219f, 0.00000852f, 0.00035475f, 0.00012653f, 0.00003297f, 0.09133103f, -0.13015983f, -0.13981822f, -0.05675888f, 0.14539431f, 0.08890435f, -0.22355457f, -0.06957233f, -0.02540405f, -0.07643753f, -0.01822963f, -0.02268799f, -0.02750239f, 0.07130592f, 0.02287206f, 0.09169102f, 0.00406899f, -0.04972412f, 0.12498005f, 0.04763306f, 0.18111797f, 0.03084991f, 0.08981685f, 0.13054556f, 0.05748996f, 0.06145631f, -0.06172905f, 0.02828331f, 0.00037374f, 0.08665185f, 0.30176193f, 0.09756591f, 0.40283412f, 0.10007051f, 0.07620227f, 0.19736378f, -0.06905252f, -0.05767284f, 0.08778103f, -0.07644482f, -0.00777705f, -0.01227057f, -0.14770354f, -0.22138077f, -0.37316835f, -0.31409428f, 0.00382520f, 0.06720855f, 0.06521276f },
{ 0.00009057f, -0.00032290f, 0.00030340f, 0.00001458f, -0.00037664f, 0.00001875f, -0.00000009f, -0.00030093f, 0.00025430f, 0.00017946f, 0.15364379f, 0.01538119f, -0.00591288f, 0.02797957f, -0.02790804f, -0.02305780f, 0.12314083f, 0.10614815f, -0.14721887f, -0.12876251f, 0.06276239f, -0.08046403f, -0.10059818f, 0.12117604f, 0.03035891f, -0.04857092f, -0.03911440f, -0.06676387f, 0.11268166f, -0.00196516f, -0.15462704f, -0.13829421f, 0.02618774f, -0.07952719f, -0.00168861f, 0.19161558f, -0.01951365f, -0.04015009f, 0.14396815f, -0.03848888f, -0.09430610f, -0.19973695f, -0.21638471f, 0.19524290f, 0.01604879f, 0.16485545f, -0.13169073f, -0.13763912f, 0.17647414f, 0.17147493f, 0.16761369f, 0.18703981f, 0.06925931f, 0.12858792f, 0.02259367f, -0.00842057f, 0.16154540f, -0.05439093f, -0.06359565f },
{ 0.00004889f, -0.00013568f, -0.00000493f, -0.00006523f, -0.00029379f, 0.00028471f, -0.00000034f, -0.00001746f, 0.00008353f, 0.00001435f, -0.03611103f, -0.10879375f, 0.07201684f, 0.03250288f, -0.04888042f, -0.07545560f, -0.03887551f, 0.07385448f, 0.03032672f, 0.16800845f, -0.10757078f, 0.08672411f, -0.03919570f, 0.06804506f, 0.11834452f, 0.04132700f, 0.15433361f, -0.08850069f, -0.06849995f, -0.12763575f, 0.13443856f, 0.02365501f, -0.07118621f, 0.02182010f, 0.03622210f, -0.24184799f, 0.11794396f, 0.12589496f, 0.04071474f, 0.14690368f, 0.10181533f, 0.05507244f, 0.12688011f, -0.04240624f, -0.07615036f, -0.21398118f, 0.07845104f, -0.10232582f, 0.25327730f, 0.23997331f, 0.21490672f, 0.23872435f, 0.09611691f, 0.26030248f, -0.19342709f, -0.18209960f, -0.05069117f, -0.01941370f, -0.25910798f }};

static float linear1_b[H1] = {0.03493744f, 0.02022976f, 0.10759758f, 0.03438945f, -0.10967543f, 0.06829654f, 0.02040500f, -0.04472664f, 0.09782108f, 0.03244644f, 0.13927886f, -0.13192573f, 0.02798502f, -0.07725988f, -0.09676047f, -0.07456404f, 0.16673538f, 0.12706690f, -0.05274732f, 0.02778064f, -0.11341760f, 0.07408235f, -0.15526129f, -0.06698062f, 0.02741706f, -0.17814948f, -0.10354892f, 0.07044412f, -0.01891501f, -0.07502865f, 0.17835087f, -0.12555829f};

static float linear2_w[H2][H1] = {
{ -0.07871191f, 0.04900636f, 0.16329807f, -0.07364798f, 0.02428212f, 0.26110640f, 0.23571271f, 0.20608580f, 0.32633963f, 0.34998539f, 0.05215776f, 0.34737834f, -0.10023365f, 0.00655273f, 0.00202586f, -0.12365326f, 0.38342574f, 0.06729185f, 0.18747698f, 0.21775672f, 0.05171854f, 0.04905933f, -0.00815010f, -0.08074901f, -0.09919289f, 0.03041236f, 0.00480586f, 0.31615561f, 0.16278256f, -0.12800889f, 0.04624751f, -0.20318373f },
{ -0.10905459f, 0.19368853f, 0.08274237f, 0.01257179f, -0.24927877f, 0.25373235f, 0.26517284f, 0.28851667f, 0.16819403f, 0.24686129f, 0.18965469f, 0.27837229f, -0.14364599f, 0.03224265f, 0.02119319f, 0.03543489f, 0.24919656f, 0.18924576f, 0.18907218f, 0.21982057f, -0.04447729f, 0.01184167f, -0.18048045f, 0.01530695f, -0.20910108f, -0.16070156f, 0.01531748f, 0.58906001f, 0.02321771f, -0.09515055f, 0.20209551f, -0.02787415f },
{ -0.02910511f, 0.15310514f, 0.11975060f, -0.07773156f, -0.12083560f, 0.18171889f, 0.11433369f, 0.20992599f, 0.19262666f, 0.19640478f, 0.02797547f, 0.31811625f, -0.03333607f, 0.15002793f, 0.05214868f, -0.04567948f, 0.15098414f, 0.08379479f, 0.08212025f, 0.21217133f, -0.07080039f, 0.03689357f, -0.04472928f, -0.08758386f, -0.07867166f, -0.07530772f, 0.00854868f, 0.34607235f, 0.02040499f, -0.02047918f, 0.14147952f, -0.16863756f },
{ 0.21528032f, -0.22676663f, 0.00676984f, 0.07641039f, 0.21211238f, -0.09164880f, 0.01141709f, -0.25973007f, -0.03705906f, -0.11436151f, -0.20326376f, -0.16992706f, 0.13814038f, -0.14763999f, 0.15188657f, 0.23625238f, -0.20787577f, -0.12605235f, -0.08961688f, -0.21468650f, -0.08765993f, -0.08836601f, 0.21670394f, 0.21107635f, 0.09226040f, -0.02243858f, -0.11297881f, -0.35979322f, 0.05297863f, 0.10229052f, -0.01099048f, 0.25179201f },
{ 0.13213189f, -0.13656995f, 0.03675573f, 0.15630509f, 0.18148465f, -0.22098331f, -0.24166112f, -0.14883655f, 0.01978528f, 0.01140017f, -0.20530869f, -0.23530334f, 0.18788552f, -0.15542567f, 0.12332211f, 0.08719407f, -0.06483945f, -0.03678772f, 0.11693010f, -0.20708075f, 0.00321114f, 0.05247372f, 0.07736070f, 0.23079515f, -0.05123403f, 0.27432558f, -0.05797462f, -0.30825046f, 0.15261930f, 0.14910230f, 0.02326399f, 0.20609206f },
{ -0.07816111f, 0.19289586f, 0.09407099f, -0.14499356f, 0.01527720f, 0.27307901f, -0.05369622f, 0.04352460f, 0.15860610f, 0.05367780f, 0.10782820f, 0.32555684f, -0.00554292f, 0.17292409f, 0.01556009f, -0.03503698f, 0.17944257f, 0.09667177f, 0.04190654f, 0.05038940f, 0.06756791f, 0.03979372f, -0.11213665f, -0.11016130f, 0.00245027f, 0.00307382f, -0.01046199f, 0.38757613f, -0.02745305f, -0.00611062f, 0.20838699f, -0.05855695f },
{ -0.09326530f, 0.25681376f, 0.18930155f, -0.04175652f, -0.06781644f, 0.31315139f, 0.17700246f, 0.18297738f, 0.16228314f, 0.18771878f, 0.28399816f, 0.43680274f, -0.05521687f, 0.15037955f, 0.13500375f, -0.24636513f, 0.34300011f, 0.17084081f, 0.11211925f, 0.13650262f, -0.07980459f, 0.14844018f, -0.20059852f, -0.11336035f, -0.07054697f, -0.29378241f, 0.06503844f, 0.28257430f, 0.11046977f, -0.19191870f, 0.18422218f, -0.10112652f },
{ 0.02616162f, 0.24777684f, 0.13024612f, -0.19220407f, -0.04447890f, 0.22087711f, 0.11633220f, 0.05709168f, 0.08588062f, 0.13699661f, 0.20092280f, 0.32322726f, 0.07533288f, 0.12700197f, 0.02526233f, -0.05380634f, 0.16304065f, 0.10602080f, 0.11303297f, 0.17631376f, -0.02367338f, 0.07600411f, -0.08109245f, -0.04792301f, 0.05094654f, -0.02790594f, -0.02966039f, 0.29791158f, -0.11785865f, -0.02476977f, 0.16523135f, -0.13583370f },
{ 0.13882919f, 0.03663885f, -0.02386974f, 0.16979894f, 0.02537859f, -0.01084480f, -0.14368291f, -0.19007030f, 0.01199364f, 0.03148692f, -0.05660817f, -0.04226245f, 0.05731755f, -0.22974996f, -0.03382767f, 0.11086666f, -0.10180321f, -0.02876975f, 0.17633323f, -0.30306450f, 0.00722847f, -0.03643269f, 0.14690511f, 0.25365970f, 0.21219173f, -0.00332841f, -0.11747450f, -0.32791847f, -0.04908550f, 0.15741861f, -0.02884392f, 0.17298242f },
{ 0.13921453f, -0.09495518f, -0.01465996f, 0.09167743f, 0.14909413f, 0.05812050f, -0.22869833f, -0.02060191f, -0.12296329f, -0.15092149f, -0.19184801f, -0.00626164f, 0.28457934f, -0.13227409f, 0.07424863f, 0.06831498f, -0.18688278f, -0.01907844f, -0.02435312f, 0.04008393f, 0.04275451f, -0.10176874f, 0.17288987f, 0.02491465f, 0.12982811f, 0.03789449f, -0.03547453f, -0.38145211f, 0.19440484f, 0.26263633f, -0.16629647f, -0.06167190f },
{ 0.04544843f, -0.09375127f, 0.11918049f, -0.08214275f, 0.19214074f, -0.20943648f, -0.24002485f, -0.19093579f, 0.02964913f, -0.03091268f, -0.23851375f, -0.15284722f, 0.07480562f, -0.28876254f, 0.08925074f, 0.15617852f, -0.16176486f, -0.07428525f, 0.01463681f, -0.20079035f, -0.11440405f, 0.00073170f, 0.23964608f, 0.03909061f, 0.19977535f, 0.02886892f, -0.09556337f, -0.39575601f, 0.18132828f, 0.25773472f, -0.03466627f, 0.22640076f },
{ 0.00301273f, 0.00063660f, -0.03959073f, -0.10013823f, -0.00473214f, -0.06826732f, 0.00005182f, -0.02997088f, -0.09984336f, -0.03594511f, -0.11402883f, 0.08074731f, -0.09755702f, 0.03718626f, 0.00321134f, -0.09918153f, -0.01707765f, 0.06427619f, -0.02284545f, 0.03403405f, -0.00109954f, -0.06739750f, -0.06240306f, -0.01978951f, -0.01582649f, -0.08595151f, -0.00010823f, -0.05446028f, -0.09828126f, -0.06529263f, -0.02722158f, -0.05652631f },
{ -0.03127233f, -0.10446387f, -0.16904821f, -0.15020798f, 0.00261830f, 0.07520314f, -0.01252657f, -0.04601106f, -0.02455433f, 0.01005165f, -0.02914990f, -0.14168045f, -0.08423872f, -0.04034426f, -0.04377851f, -0.08966461f, -0.10183707f, -0.11450258f, 0.03845745f, 0.06731648f, 0.05229361f, -0.04798432f, -0.11028957f, 0.03159404f, -0.08360828f, -0.06220489f, 0.00577354f, -0.10606638f, -0.17260443f, -0.00987612f, -0.03177099f, -0.12369598f },
{ 0.04782083f, 0.13405694f, 0.09644083f, -0.06504497f, 0.04751752f, 0.16576777f, 0.09613636f, 0.14550076f, 0.23434408f, 0.20914915f, 0.13202326f, 0.27100539f, -0.10814938f, 0.25825244f, -0.00229953f, -0.08109523f, 0.27478111f, 0.26192772f, 0.05100656f, 0.28957388f, -0.01888095f, 0.15715508f, -0.06302250f, -0.00786228f, -0.01818214f, -0.18107621f, 0.00553112f, 0.34528238f, 0.14259458f, 0.06906706f, 0.10878230f, 0.02755791f },
{ -0.11940440f, 0.03276290f, 0.09238390f, -0.04810506f, 0.00134653f, -0.17611220f, -0.05877979f, -0.13650590f, -0.22944774f, -0.04397575f, -0.13859104f, -0.04681822f, -0.15914522f, -0.00914194f, -0.17046480f, -0.03480507f, -0.05197296f, 0.04417716f, 0.13534012f, -0.05371553f, 0.04985167f, -0.15807171f, 0.00312346f, -0.03850570f, 0.01481789f, -0.03511540f, -0.00094584f, -0.21691693f, 0.15944147f, 0.17188855f, 0.00721543f, -0.05153650f },
{ -0.06906119f, -0.26750866f, -0.11383720f, 0.10487168f, 0.18999845f, -0.10832032f, 0.01434860f, -0.22973689f, -0.19120744f, -0.01131806f, -0.20290421f, -0.06101695f, 0.28393877f, -0.31743208f, -0.07769068f, 0.11478091f, -0.28305921f, 0.12148833f, -0.05737753f, -0.05080559f, -0.12759800f, -0.21265729f, 0.10975637f, 0.10423572f, 0.21214350f, 0.26964796f, -0.08017579f, -0.30620980f, 0.08133142f, 0.06657045f, -0.02879350f, -0.16482159f }};

static float linear2_b[H2] = {0.05263942f, 0.29123223f, 0.10050281f, 0.13840730f, 0.04378840f, 0.10494326f, 0.20660143f, 0.01953366f, 0.00562715f, 0.07000716f, 0.08889768f, -0.21062930f, -0.01763949f, 0.02857650f, -0.05875159f, 0.12160726f};

static float linear3_w[OUTPUT_SIZE][H2] = {{ -0.25251862f, -0.28210455f, -0.22015908f, 0.34158650f, 0.27349633f, -0.21270548f, -0.31602767f, -0.21238048f, 0.29461941f, 0.32789451f, 0.30497015f, -0.11942758f, 0.12425509f, -0.19452091f, 0.16816036f, 0.41442022f}};

static float linear3_b[OUTPUT_SIZE] = {-0.13686182f};

float leaky_relu(float x) {
   if (x > 0) {
       return x;
   }
   return 0.01 * x;
}

float sigmoid(float x) {
    if (x > 10) x = 10;
    if (x < -10) x = -10;
    
    float nexp_x = exp(-x);
    return 1 / (1 + nexp_x);
}

void linear_layer1( const float W[H1][INPUT_SIZE], const float b[H1], const float in[INPUT_SIZE], float out[H1] ) {
    f_int FIUnion;
       for (int o = 0; o < H1; o++) {
            float acc = b[o];
            for (int i = 0; i < INPUT_SIZE; i++) {
                //FIUnion.float_version = in[i];
                acc += W[o][i] * in[i];
                //cout << FIUnion.int_version << " ";
            }
            out[o] = acc;
       }
}

void linear_layer2( const float W[H2][H1], const float b[H2], const float in[H1], float out[H2] ) {
       for (int o = 0; o < H2; o++) {
           float acc = b[o];
           for (int i = 0; i < H1; i++) {
               acc += W[o][i] * in[i];
           }
           out[o] = acc;
       }
}

void linear_layer3( const float W[OUTPUT_SIZE][H2], const float b[OUTPUT_SIZE], const float in[H2], float out[OUTPUT_SIZE] ) {
       for (int o = 0; o < OUTPUT_SIZE; o++) {
           float acc = b[o];
           for (int i = 0; i < H2; i++) {
               acc += W[o][i] * in[i];
           }
           out[o] = acc;
       }
}

int main() {
    cout << "hello" << endl;
    float test1[INPUT_SIZE] = {
        0.0000,  0.0000,  0.0000,  0.0000,  0.0000,  0.0000,  0.0000,  0.0000,  0.0000,  0.0000,  0.5433,  0.3445,  0.5234,  0.3275,  0.5032,  0.4734,  0.0000,  0.0000,  0.4358,  0.4028,  0.0000,  0.0000,  0.5208,  0.5954,  0.5047,  0.5836,  0.0000,  0.0000,  0.0000,  0.0000,  0.0000,  0.0000,  0.0000,  0.0000,  1.0000,  0.4855, -0.4674,  0.9777,  0.9973,  0.9960,  0.0000,  0.0000,  0.0000,  0.0000,  0.0000,  0.0000,  0.0000,  0.0000,  0.0000,  0.0000,  0.0000,  0.0000,  0.0000,  0.0000,  0.0000,  0.0000,  1.0000,  0.0000,  0.0000
    };

    float test2[INPUT_SIZE] = {
       0.0000,  0.0000,  0.0000,  0.0000,  0.0000,  0.0000,  0.0000,  0.0000,  0.0000,  0.0000,  0.5936,  0.3471,  0.3933,  0.3409,  0.7274,  0.3413,  0.2390,  0.2948,  0.7652,  0.3070,  0.0871,  0.2514,  0.5523,  0.5722,  0.4217,  0.5680,  0.0000,  0.0000,  0.0000,  0.0000,  0.0000,  0.0000,  0.0000,  0.0000,  -0.9999, -0.7687, -0.4032, -0.2229,  0.0000,  0.0000,  0.0000,  0.0000,  0.0000,  0.0000,  0.0000,  0.0000,  0.0000,  0.0000,  0.0000,  0.0000,  0.0000,  0.0000, -0.9664, -0.9973, -0.0896, -0.0401,  0.0000,  0.0000,  1.0000};

    float test3[INPUT_SIZE] = {
        0.0000,  0.0000,  0.0000,  0.0000,  0.0000,  0.0000,  0.0000,  0.0000,  0.0000,  0.0000,  0.3683,  0.3506,  0.5724,  0.3536,  0.2085,  0.3744,  0.6959,  0.3927,  0.0878,  0.3721,  0.7493,  0.3809,  0.4352,  0.5969,  0.5655,  0.6002,  0.0000,  0.0000,  0.0000,  0.0000,  0.0000,  0.0000,  0.0000,  0.0000, -0.8657, -0.9860,  0.2749, -0.1169,  0.0000,  0.0000,  0.0000,  0.0000,  0.0000,  0.0000,  0.0000,  0.0000,  0.0000,  0.0000,  0.0000,  0.0000,  0.0000,  0.0000, -0.9576, -0.9868,  0.0273,  0.0215,  0.0000,  0.0000,  1.0000
    };

    float hidden1[H1];
    float hidden2[H2];
    float result[OUTPUT_SIZE];
    f_int FIUnion;

    // First input
    linear_layer1(linear1_w, linear1_b, test1, hidden1);
    for (int i = 0; i < H1; i++) hidden1[i] = leaky_relu(hidden1[i]);

    linear_layer2(linear2_w, linear2_b, hidden1, hidden2);
    for (int i = 0; i < H2; i++) hidden2[i] = leaky_relu(hidden2[i]);

    linear_layer3(linear3_w, linear3_b, hidden2, result);
    //FIUnion.int_version = result[0];
    //result[0] = sigmoid(FIUnion.float_version);
    cout << endl;
    cout << "Result1: " << sigmoid(result[0]) << endl;

    // First input
    linear_layer1(linear1_w, linear1_b, test2, hidden1);
    for (int i = 0; i < H1; i++) hidden1[i] = leaky_relu(hidden1[i]);

    linear_layer2(linear2_w, linear2_b, hidden1, hidden2);
    for (int i = 0; i < H2; i++) hidden2[i] = leaky_relu(hidden2[i]);
    
    linear_layer3(linear3_w, linear3_b, hidden2, result);
    //FIUnion.int_version = result[0];
    //result[0] = sigmoid(FIUnion.float_version);
    cout << endl;
    cout << "Result2: " << sigmoid(result[0]) << endl;

    // First input
    linear_layer1(linear1_w, linear1_b, test3, hidden1);
    for (int i = 0; i < H1; i++) hidden1[i] = leaky_relu(hidden1[i]);

    linear_layer2(linear2_w, linear2_b, hidden1, hidden2);
    for (int i = 0; i < H2; i++) hidden2[i] = leaky_relu(hidden2[i]);
    
    linear_layer3(linear3_w, linear3_b, hidden2, result);
    //FIUnion.int_version = result[0];
    //result[0] = sigmoid(FIUnion.float_version);
    cout << endl;
    cout << "Result3: " << sigmoid(result[0]) << endl;

    return 0;
}